/*!
 * The following copyright notice may not be removed under any circumstances.
 * 
 * Copyright:
 * Copyright 2010 URW++ Design & Development Hamburg
 * 
 * Vendor URL:
 * www.urwpp.de
 * 
 * License information:
 * http://new.myfonts.com/license/,1146
 */
Cufon.registerFont({"w":587,"face":{"font-family":"FranklinGothicURW-Boo","font-weight":400,"font-stretch":"normal","units-per-em":"1000","panose-1":"0 0 5 0 0 0 0 0 0 0","ascent":"785","descent":"-215","x-height":"13","bbox":"-61 -736 798 186","underline-thickness":"67","underline-position":"-34","unicode-range":"U+0020-U+007E"},"glyphs":{" ":{"w":250},"!":{"d":"186,0r-102,0r0,-103r102,0r0,103xm154,-166r-41,0r-36,-501r115,0","w":269},"\"":{"d":"115,-409r-48,0r-15,-258r78,0xm250,-409r-49,0r-14,-258r78,0","w":316},"#":{"d":"555,-471r-11,60r-102,0r-25,139r102,0r-10,60r-103,0r-37,212r-64,0r38,-212r-142,0r-38,212r-63,0r38,-212r-107,0r11,-60r106,0r25,-139r-107,0r11,-60r107,0r34,-196r64,0r-35,196r141,0r35,-196r63,0r-35,196r104,0xm377,-411r-140,0r-25,139r141,0"},"$":{"d":"517,-200v0,115,-78,169,-202,179r0,94r-59,0r0,-94v-109,-12,-179,-63,-209,-153r66,-26v25,69,72,107,143,112r0,-227v-109,-27,-182,-54,-182,-169v0,-108,77,-157,182,-171r0,-81r59,0r0,81v95,9,158,51,189,128r-66,22v-17,-53,-58,-82,-123,-86r0,209v121,23,202,61,202,182xm315,-88v71,-4,127,-38,127,-106v0,-70,-52,-96,-127,-107r0,213xm256,-591v-62,7,-111,36,-111,98v0,53,37,87,111,102r0,-200"},"%":{"d":"37,-501v0,-95,49,-172,136,-173v88,0,139,79,139,175v0,91,-52,172,-137,172v-87,0,-138,-81,-138,-174xm259,-494v0,-75,-23,-142,-86,-142v-62,0,-84,60,-84,133v0,74,23,137,87,137v59,0,83,-60,83,-128xm190,0r-62,0r404,-667r61,0xm410,-167v0,-95,49,-172,136,-173v89,0,138,79,138,175v0,91,-52,172,-137,172v-87,0,-137,-81,-137,-174xm632,-160v0,-76,-23,-142,-87,-142v-62,0,-84,60,-84,133v0,74,23,137,87,137v60,0,84,-59,84,-128","w":720},"&":{"d":"495,-100v36,38,60,37,135,30r0,70v-29,5,-54,7,-73,7v-64,-3,-63,-19,-111,-60v-57,43,-90,64,-176,66v-122,3,-229,-82,-227,-198v2,-110,79,-172,173,-204v-43,-63,-64,-113,-64,-151v-1,-81,67,-140,150,-140v87,0,157,57,154,142v-4,99,-58,129,-140,173r140,213v45,-58,76,-129,91,-213r71,15v-12,80,-74,204,-123,250xm126,-189v-11,148,201,178,282,86r-160,-236v-76,37,-115,58,-122,150xm305,-618v-64,0,-102,63,-71,122v8,16,23,44,48,83v50,-31,109,-51,111,-120v1,-47,-40,-85,-88,-85","w":667},"'":{"d":"115,-409r-48,0r-15,-258r78,0","w":181},"(":{"d":"247,167r-51,0v-192,-249,-192,-579,-1,-834r51,0v-166,255,-163,575,1,834","w":293},")":{"d":"46,-667r51,0v192,249,192,579,1,834r-51,0v166,-255,163,-575,-1,-834","w":293},"*":{"d":"274,-483r-19,-184r76,0r-19,184r173,-76r23,70r-189,38r125,137r-61,43r-90,-158r-90,158r-61,-43r125,-137r-189,-38r23,-70"},"+":{"d":"60,-368r197,0r0,-205r73,0r0,205r197,0r0,68r-197,0r0,205r-73,0r0,-205r-197,0r0,-68"},",":{"d":"179,-111r0,100r-73,136r-42,0r58,-125r-50,0r0,-111r107,0","w":250},"-":{"d":"236,-280r0,60r-221,0r0,-60r221,0","w":250},".":{"d":"180,-109r0,109r-109,0r0,-109r109,0","w":250},"\/":{"d":"18,167r-65,0r402,-834r66,0","w":454},"0":{"d":"41,-335v0,-178,87,-345,250,-345v168,0,258,176,255,350v-3,173,-75,343,-252,343v-164,0,-253,-167,-253,-348xm460,-319v0,-147,-40,-296,-169,-296v-125,0,-165,131,-165,278v0,150,42,279,169,285v117,5,165,-136,165,-267"},"1":{"d":"559,-62r0,62r-467,0r0,-62r200,0r0,-515v-59,61,-120,109,-183,144r0,-84v85,-44,152,-98,203,-163r60,0r0,618r187,0"},"2":{"d":"291,-680v124,-2,233,83,232,201v0,47,-13,90,-41,129v-63,89,-212,203,-325,281r368,0r0,69r-473,0r0,-69v152,-115,266,-194,353,-303v25,-32,35,-68,35,-106v1,-78,-69,-136,-150,-136v-85,0,-153,63,-160,153r-78,-24v24,-120,108,-192,239,-195"},"3":{"d":"449,-183v0,-116,-123,-139,-255,-130r0,-67v120,7,231,-8,231,-117v1,-72,-64,-118,-139,-117v-79,1,-133,41,-156,108r-76,-21v38,-97,117,-151,239,-153v115,-2,218,69,217,177v0,83,-55,137,-128,152v88,16,151,70,154,166v6,193,-291,254,-429,143v-40,-33,-56,-54,-77,-107r78,-26v29,87,72,117,178,120v97,3,163,-45,163,-128"},"4":{"d":"441,0r-81,0r0,-159r-329,0r0,-56r305,-466r105,0r0,456r108,0r0,66r-108,0r0,159xm360,-225r2,-389r-36,63r-208,326r242,0"},"5":{"d":"452,-222v0,-92,-66,-161,-157,-161v-63,0,-116,30,-157,91r-66,-14r22,-361r395,0r-7,72r-328,0r-14,216v52,-46,82,-70,163,-73v128,-3,230,103,230,231v0,136,-115,234,-254,234v-113,0,-206,-63,-236,-157r71,-25v32,77,87,116,165,116v102,0,173,-68,173,-169"},"6":{"d":"51,-318v2,-196,78,-361,270,-362v107,0,178,50,215,150r-75,20v-27,-63,-61,-101,-141,-101v-141,0,-194,137,-192,309v34,-78,105,-133,202,-135v119,-2,216,101,216,220v0,129,-108,232,-237,230v-171,-2,-260,-147,-258,-331xm469,-210v0,-86,-67,-160,-153,-160v-88,0,-169,75,-169,162v0,85,75,154,161,154v86,0,161,-71,161,-156"},"7":{"d":"518,-617v-117,142,-239,353,-237,617r-86,0v-5,-231,115,-463,236,-594r-362,0r9,-73r440,0r0,50"},"8":{"d":"295,13v-134,0,-259,-65,-259,-186v0,-75,53,-132,158,-173v-84,-37,-126,-90,-126,-161v1,-112,107,-173,230,-173v122,0,222,59,223,170v0,71,-43,121,-129,152v90,43,158,72,158,183v0,122,-120,188,-255,188xm301,-617v-78,0,-149,33,-149,103v0,71,73,109,143,126v85,-25,153,-42,153,-126v0,-70,-69,-103,-147,-103xm293,-50v91,0,175,-36,175,-115v0,-93,-86,-116,-182,-146v-112,27,-168,74,-168,142v0,81,84,119,175,119"},"9":{"d":"535,-349v0,195,-76,363,-272,363v-104,0,-178,-50,-206,-136r67,-24v44,121,218,120,281,16v32,-52,51,-124,52,-221v-44,73,-93,118,-197,120v-123,3,-219,-97,-219,-220v0,-129,105,-229,234,-229v183,0,260,143,260,331xm440,-457v0,-88,-70,-154,-159,-154v-93,0,-159,66,-159,159v0,88,69,154,157,154v85,0,161,-74,161,-159"},":":{"d":"180,-110r0,110r-109,0r0,-110r109,0xm180,-493r0,109r-109,0r0,-109r109,0","w":250},";":{"d":"178,-493r0,108r-107,0r0,-108r107,0xm178,-111r0,100r-74,136r-40,0r57,-125r-50,0r0,-111r107,0","w":250},"<":{"d":"500,-566r0,74r-353,162r353,161r0,75r-433,-204r0,-65"},"=":{"d":"60,-454r467,0r0,67r-467,0r0,-67xm60,-296r467,0r0,67r-467,0r0,-67"},">":{"d":"87,-94r0,-75r353,-161r-353,-162r0,-74r433,203r0,65"},"?":{"d":"279,-96r0,96r-99,0r0,-96r99,0xm247,-680v123,-2,220,73,219,190v0,71,-42,129,-125,174v-76,40,-81,44,-79,150r-70,0v0,-75,-1,-150,53,-177v59,-29,135,-71,135,-150v0,-71,-61,-121,-135,-119v-93,1,-135,56,-152,144r-73,-15v18,-122,98,-194,227,-197","w":505},"@":{"d":"195,-320v0,-105,72,-198,172,-197v44,0,79,19,105,57r6,-49r65,0r-30,272v0,23,11,34,33,34v59,-2,99,-102,99,-173v0,-142,-113,-244,-257,-244v-157,0,-288,129,-283,286v6,172,114,283,296,285v75,1,154,-23,219,-54r21,59v-78,38,-158,57,-239,57v-220,-1,-355,-137,-362,-347v-7,-190,157,-346,348,-346v172,0,317,130,317,299v0,113,-68,240,-168,241v-39,0,-65,-20,-79,-59v-31,39,-51,60,-110,61v-91,2,-153,-86,-153,-182xm353,-203v113,3,156,-249,21,-249v-63,0,-103,66,-103,135v0,59,29,113,82,114","w":745},"A":{"d":"532,0r-86,0r-67,-195r-247,0r-59,195r-70,0r216,-667r96,0xm361,-258r-102,-320r-103,320r205,0","w":551},"B":{"d":"563,-185v1,116,-85,185,-217,185r-263,0r0,-667r264,0v114,-3,197,64,196,163v-1,79,-45,129,-118,150v86,21,137,83,138,169xm479,-189v0,-81,-55,-129,-148,-129r-167,0r0,245r179,0v80,1,136,-39,136,-116xm460,-495v0,-71,-54,-105,-130,-104r-166,0r0,218r145,0v98,2,151,-32,151,-114","w":605},"C":{"d":"315,-58v105,0,143,-69,168,-166r76,17v-31,129,-105,220,-246,220v-182,0,-271,-169,-271,-353v0,-190,99,-340,277,-340v125,0,205,71,240,214r-78,15v-30,-93,-61,-158,-163,-158v-132,0,-185,127,-185,278v0,144,56,273,182,273","w":579},"D":{"d":"605,-336v0,176,-107,337,-271,336r-251,0r0,-667r223,0v187,-1,299,148,299,331xm520,-336v2,-142,-72,-263,-219,-261r-135,0r0,526r136,0v152,1,216,-116,218,-265","w":647},"E":{"d":"514,-73r0,73r-431,0r0,-667r422,0r0,73r-339,0r0,213r269,0r0,68r-269,0r0,240r348,0","w":548},"F":{"d":"166,0r-83,0r0,-667r408,0r0,73r-325,0r0,211r270,0r0,67r-270,0r0,316","w":508},"G":{"d":"328,-54v111,0,177,-89,163,-212r-164,0r0,-70r250,0r0,345r-52,0r-22,-84v-45,58,-92,88,-186,89v-173,1,-275,-160,-275,-340v0,-195,106,-354,289,-354v128,0,210,78,239,193r-79,19v-19,-88,-77,-141,-168,-141v-144,0,-190,134,-190,280v0,149,52,275,195,275","w":647},"H":{"d":"559,0r-83,0r0,-318r-310,0r0,318r-83,0r0,-667r83,0r0,276r310,0r0,-276r83,0r0,667","w":643},"I":{"d":"166,0r-83,0r0,-667r83,0r0,667","w":250},"J":{"d":"89,-59v98,0,125,-37,125,-145r0,-463r83,0r0,463v0,145,-60,216,-201,217v-29,0,-61,-4,-96,-13r0,-68v33,6,63,9,89,9","w":373},"K":{"d":"610,0r-92,0r-199,-368r-153,190r0,178r-83,0r0,-667r83,0r0,387r302,-387r90,0r-181,234","w":628},"L":{"d":"476,-73r0,73r-393,0r0,-667r85,0r0,594r308,0","w":490},"M":{"d":"726,0r-81,0r0,-582r-216,582r-57,0r-218,-582r0,582r-71,0r0,-667r124,0r200,533r197,-533r122,0r0,667","w":810},"N":{"d":"574,0r-81,0r-345,-581r2,581r-67,0r0,-667r104,0r323,544r-2,-544r66,0r0,667","w":657},"O":{"d":"42,-332v0,-187,100,-348,274,-348v175,0,273,157,273,346v0,177,-97,347,-275,347v-179,0,-272,-164,-272,-345xm502,-335v0,-151,-54,-277,-187,-277v-129,0,-186,134,-186,281v0,145,59,276,187,276v127,0,186,-134,186,-280","w":631},"P":{"d":"535,-468v4,115,-90,197,-207,197r-162,0r0,271r-83,0r0,-667r236,0v134,-1,211,74,216,199xm450,-468v0,-74,-52,-129,-125,-129r-159,0r0,257r153,0v77,1,131,-51,131,-128","w":559},"Q":{"d":"388,0v-13,92,85,97,165,82r0,67v-128,32,-231,-8,-233,-138v-75,-6,-110,-17,-156,-51v-81,-61,-122,-158,-122,-291v0,-191,100,-348,277,-349v176,0,280,155,277,343v-3,169,-68,297,-208,337xm506,-331v0,-155,-50,-276,-186,-276v-144,0,-188,124,-189,279v-2,147,53,269,182,269v135,0,193,-121,193,-272","w":637},"R":{"d":"556,-480v-1,86,-46,146,-124,171r131,309r-88,0r-123,-289r-191,0r0,289r-78,0r0,-667r262,0v118,-2,213,73,211,187xm473,-482v0,-72,-54,-112,-128,-112r-184,0r0,237r174,0v83,2,137,-49,138,-125","w":613},"S":{"d":"529,-188v0,129,-109,203,-247,201v-149,-2,-230,-70,-272,-191r75,-16v31,91,96,136,197,136v91,0,160,-39,160,-122v0,-112,-143,-115,-235,-139v-98,-26,-163,-78,-164,-179v-1,-116,102,-182,225,-182v121,0,201,55,238,164r-75,21v-17,-74,-86,-112,-166,-117v-100,-6,-187,99,-115,172v39,40,140,51,207,68v114,29,172,89,172,184","w":569},"T":{"d":"284,0r-83,0r0,-594r-191,0r0,-73r465,0r0,73r-191,0r0,594","w":485},"U":{"d":"307,-60v105,0,156,-56,156,-171r0,-436r69,0r0,436v1,158,-79,243,-232,244v-157,0,-227,-83,-227,-244r0,-436r83,0r0,436v-2,122,41,171,151,171","w":606},"V":{"d":"533,-667r-225,667r-80,0r-225,-667r87,0r186,550r184,-550r73,0","w":537},"W":{"d":"798,-667r-160,667r-84,0r-145,-517r-136,517r-85,0r-169,-667r86,0r134,540r142,-540r67,0r153,540r124,-540r73,0","w":817},"X":{"d":"490,-667r-187,305r214,362r-94,0r-169,-284r-174,284r-78,0r214,-345r-191,-322r93,0r147,247r149,-247r76,0","w":520},"Y":{"d":"519,-667r-223,386r0,281r-83,0r0,-281r-223,-386r98,0r177,307r178,-307r76,0","w":510},"Z":{"d":"497,-71r0,71r-470,0r0,-71r362,-523r-345,0r0,-68r442,0r0,55r-366,536r377,0","w":521},"[":{"d":"252,167r-173,0r0,-834r173,0r0,50r-106,0r0,731r106,0r0,53","w":293},"\\":{"d":"435,167r-402,-834r65,0r403,834r-66,0","w":454},"]":{"d":"41,-667r173,0r0,834r-173,0r0,-50r106,0r0,-731r-106,0r0,-53","w":293},"^":{"d":"476,-364r-81,0r-145,-246r-144,246r-81,0r176,-305r99,0","w":500},"_":{"d":"0,66r500,0r0,67r-500,0r0,-67","w":500},"`":{"d":"92,-662r30,-59r193,112r-20,39","w":500},"a":{"d":"266,-507v137,0,186,58,186,202v0,102,-9,221,11,305r-76,0v-3,-13,-6,-42,-9,-89v-38,67,-78,100,-173,102v-95,2,-176,-58,-172,-149v6,-158,167,-178,345,-169v2,-102,-28,-144,-129,-143v-75,0,-119,30,-132,90r-71,-12v20,-101,100,-137,220,-137xm220,-46v99,-1,173,-89,158,-201v-138,-8,-255,3,-263,113v-4,56,46,89,105,88","w":529},"b":{"d":"499,-249v0,139,-76,261,-203,262v-65,0,-116,-32,-154,-95r-28,82r-37,0r0,-667r77,0r0,256v36,-58,66,-95,145,-95v127,0,200,119,200,257xm288,-443v-71,0,-134,63,-134,139r0,111v7,87,51,143,134,143v88,0,132,-89,130,-189v-1,-106,-31,-204,-130,-204","w":537},"c":{"d":"118,-248v0,107,37,198,130,198v64,0,104,-41,120,-123r69,12v-16,105,-83,172,-191,174v-135,2,-208,-115,-208,-259v0,-144,77,-261,212,-260v111,1,170,70,187,172r-69,13v-9,-72,-50,-122,-119,-122v-92,0,-131,91,-131,195","w":466},"d":{"d":"239,-506v76,0,106,30,145,80r0,-241r77,0r0,667r-70,0r0,-84v-37,61,-71,98,-156,98v-124,0,-198,-121,-198,-256v0,-140,74,-264,202,-264xm248,-49v72,0,136,-66,136,-151r0,-103v-5,-90,-50,-142,-133,-142v-89,0,-130,92,-130,193v0,109,33,203,127,203","w":538},"e":{"d":"269,-50v68,0,111,-37,133,-97r71,15v-28,84,-102,145,-209,145v-138,1,-226,-113,-226,-257v0,-188,173,-328,340,-232v72,41,103,120,104,236r-359,0v-3,118,43,190,146,190xm398,-297v0,-85,-51,-151,-130,-150v-80,1,-135,63,-141,150r271,0","w":520},"f":{"d":"90,-493v-7,-153,73,-208,220,-181r0,62v-70,-20,-145,2,-148,66v-1,8,-1,26,-1,53r120,0r0,60r-120,0r0,433r-71,0r0,-433r-87,0r0,-60r87,0","w":300},"g":{"d":"345,-485v10,-66,50,-92,134,-85r0,61v-61,0,-85,7,-94,56v31,37,47,76,47,119v2,121,-129,190,-255,156v-44,-3,-75,62,-27,83v46,20,257,-1,294,42v36,23,54,55,54,98v0,94,-83,141,-248,141v-123,0,-225,-27,-225,-130v0,-46,25,-79,75,-98v-30,-24,-48,-35,-48,-80v0,-52,26,-66,68,-87v-39,-36,-62,-65,-64,-131v-5,-135,165,-210,289,-145xm355,-335v0,-62,-47,-112,-109,-112v-64,0,-111,46,-111,110v0,65,45,108,110,108v62,0,110,-45,110,-106xm256,127v67,0,169,-13,169,-79v0,-33,-37,-55,-70,-57r-202,-11v-34,18,-54,27,-54,68v0,69,75,79,157,79","w":491},"h":{"d":"305,-507v109,0,159,73,159,208r0,299r-77,0r0,-299v3,-97,-20,-144,-96,-144v-83,0,-137,81,-137,177r0,266r-77,0r0,-667r77,0r0,265v36,-64,67,-105,151,-105","w":540},"i":{"d":"153,-493r0,493r-77,0r0,-493r77,0xm156,-667r0,85r-83,0r0,-85r83,0","w":229},"j":{"d":"-61,100v77,21,137,4,137,-84r0,-515r77,0r0,515v4,131,-90,178,-214,145r0,-61xm157,-667r0,85r-87,0r0,-85r87,0","w":229},"k":{"d":"485,0r-80,0r-144,-275r-107,123r0,152r-77,0r0,-667r77,0r0,427r229,-253r82,0r-154,174","w":501},"l":{"d":"154,0r-77,0r0,-667r77,0r0,667","w":230},"m":{"d":"589,-506v108,0,149,65,149,200r0,306r-75,0r0,-306v2,-88,-24,-134,-95,-134v-73,0,-126,74,-126,162r0,278r-74,0r0,-324v3,-71,-38,-118,-97,-119v-71,-1,-121,73,-121,148r0,295r-73,0r0,-493r66,0r0,95v35,-72,86,-108,152,-108v77,1,122,51,138,118v34,-79,86,-118,156,-118","w":814},"n":{"d":"306,-506v111,0,160,69,160,221r0,285r-72,0r0,-317v0,-75,-31,-123,-102,-123v-84,-1,-138,80,-138,169r0,271r-77,0r0,-493r71,0r0,91v45,-65,69,-104,158,-104","w":542},"o":{"d":"38,-248v0,-144,86,-258,223,-258v140,0,220,116,220,265v0,140,-92,254,-228,254v-136,0,-215,-116,-215,-261xm397,-245v0,-114,-43,-198,-139,-198v-93,0,-136,84,-136,194v0,111,39,199,137,199v96,0,138,-88,138,-195","w":519},"p":{"d":"300,13v-78,0,-109,-33,-146,-88r0,242r-77,0r0,-660r69,0r0,96v34,-65,70,-109,155,-109v127,0,196,120,196,259v0,139,-70,260,-197,260xm285,-439v-71,0,-115,57,-131,122r0,138v9,66,62,129,131,129v96,0,128,-79,128,-192v1,-107,-35,-197,-128,-197","w":534},"q":{"d":"241,-507v86,0,108,34,149,95r30,-88r39,0r0,667r-77,0r0,-257v-33,69,-82,103,-149,103v-127,-1,-195,-118,-195,-256v0,-142,72,-264,203,-264xm249,-53v100,0,141,-107,133,-232v-6,-93,-51,-158,-132,-158v-88,0,-128,96,-128,197v0,102,38,193,127,193","w":536},"r":{"d":"320,-432v-97,-9,-166,74,-166,171r0,261r-77,0r0,-493r67,0r0,115v40,-81,69,-138,176,-127r0,73","w":329},"s":{"d":"432,-138v0,164,-271,191,-371,96v-22,-21,-40,-49,-51,-86r73,-15v18,69,74,91,153,93v61,2,113,-26,116,-80v4,-74,-118,-82,-189,-95v-74,-14,-133,-57,-133,-136v0,-93,85,-145,186,-145v105,0,169,42,194,125r-70,15v-22,-51,-64,-77,-126,-77v-56,-1,-103,24,-106,73v-3,69,109,74,174,86v100,18,150,67,150,146","w":464},"t":{"d":"300,-53r0,61v-125,23,-214,-14,-214,-144r0,-297r-87,0r0,-60r87,0r3,-124r72,-6r0,130r111,0r0,60r-111,0r0,309v-5,75,68,87,139,71","w":308},"u":{"d":"251,-50v78,3,137,-82,137,-165r0,-278r77,0r0,493r-69,0r0,-94v-36,71,-88,107,-157,107v-105,0,-162,-80,-162,-191r0,-315r77,0r0,315v-2,79,32,126,97,128","w":541},"v":{"d":"438,-493r-170,493r-80,0r-176,-493r85,0r137,401r136,-401r68,0","w":450},"w":{"d":"645,-493r-142,493r-62,0r-110,-366r-101,366r-63,0r-148,-493r77,0r107,367r103,-367r56,0r110,369r111,-369r62,0","w":664},"x":{"d":"420,0r-89,0r-125,-200r-128,200r-75,0r166,-256r-150,-237r88,0r106,168r107,-168r74,0r-144,221","w":424},"y":{"d":"415,-493r-198,551v-29,89,-89,138,-203,110r0,-61v104,26,138,-27,162,-116r-171,-484r78,0r132,371r135,-371r65,0","w":415},"z":{"d":"396,-59r0,59r-363,0r0,-59r262,-374r-242,0r0,-60r343,0r0,42r-271,392r271,0","w":423},"{":{"d":"274,-615v-71,3,-92,17,-92,87r0,169v-1,66,-17,87,-62,110v44,21,61,49,62,112r0,162v2,74,19,87,92,90r0,52v-113,3,-159,-31,-159,-143v0,-95,31,-236,-57,-251r0,-48v90,-17,57,-163,57,-261v0,-102,52,-135,159,-131r0,52","w":293},"|":{"d":"213,-667r75,0r0,834r-75,0r0,-834","w":500},"}":{"d":"20,115v71,-3,92,-17,92,-87r0,-169v1,-66,17,-87,62,-110v-44,-21,-61,-49,-62,-112r0,-162v-2,-74,-19,-87,-92,-90r0,-52v113,-3,159,31,159,143v0,95,-31,236,57,251r0,48v-90,17,-57,163,-57,261v0,102,-52,135,-159,131r0,-52","w":293},"~":{"d":"184,-330v-48,3,-63,32,-87,73r-44,-29v33,-67,59,-108,137,-116v44,-4,167,68,209,65v51,-4,65,-28,90,-67r45,27v-33,61,-64,105,-138,113v-38,4,-161,-69,-212,-66"},"\u00a0":{"w":250}}});
