/*!
 * The following copyright notice may not be removed under any circumstances.
 * 
 * Copyright:
 * Copyright 2010 URW++ Design & Development Hamburg
 * 
 * Vendor URL:
 * www.urwpp.de
 * 
 * License information:
 * http://new.myfonts.com/license/,1146
 */
Cufon.registerFont({"w":587,"face":{"font-family":"FranklinGothicURW-Dem","font-weight":400,"font-stretch":"normal","units-per-em":"1000","panose-1":"0 0 7 0 0 0 0 0 0 0","ascent":"795","descent":"-205","x-height":"10","bbox":"-65 -740 867 177.545","underline-thickness":"117","underline-position":"12","unicode-range":"U+0020-U+007E"},"glyphs":{" ":{"w":250},"!":{"d":"70,0r0,-154r154,0r0,154r-154,0xm102,-199r-49,-468r187,0r-48,468r-90,0","w":294},"\"":{"d":"139,-389r-84,0r-17,-278r118,0xm316,-389r-84,0r-17,-278r118,0","w":371},"#":{"d":"524,-302r-17,97r-95,0r-36,205r-98,0r36,-205r-77,0r-36,205r-97,0r36,-205r-106,0r17,-97r107,0r13,-76r-105,0r17,-97r105,0r34,-192r97,0r-34,192r76,0r34,-192r99,0r-34,192r92,0r-17,97r-92,0r-13,76r94,0xm344,-378r-76,0r-13,76r76,0"},"$":{"d":"531,-223v0,122,-93,194,-214,203r0,93r-79,0r0,-92v-111,-10,-193,-72,-214,-170r134,-31v17,58,59,87,126,87v53,1,100,-19,100,-65v0,-55,-45,-57,-108,-71v-131,-29,-217,-61,-220,-191v-3,-109,80,-181,182,-194r0,-77r79,0r0,76v101,10,166,58,197,144r-123,42v-21,-52,-42,-73,-108,-74v-46,0,-84,15,-84,55v0,49,36,53,89,65v81,18,136,34,163,53v53,37,80,86,80,147"},"%":{"d":"28,-500v0,-95,49,-172,137,-172v91,0,139,76,139,174v0,94,-51,169,-139,169v-88,0,-137,-77,-137,-171xm166,-391v68,6,52,-150,38,-195v-6,-18,-20,-26,-38,-26v-49,0,-49,45,-49,109v0,65,0,108,49,112xm121,0r370,-667r74,0r-370,667r-74,0xm385,-166v0,-95,49,-172,137,-172v91,0,139,76,139,174v0,94,-51,169,-139,169v-88,0,-137,-77,-137,-171xm523,-57v68,6,52,-150,38,-195v-6,-18,-20,-26,-38,-26v-49,0,-49,45,-49,109v0,65,0,108,49,112","w":689},"&":{"d":"536,-515v-1,93,-50,128,-126,162r94,102v27,-29,46,-73,59,-132r138,19v-14,73,-50,144,-109,212v34,30,55,35,109,28r0,119v-93,22,-164,2,-211,-54v-67,48,-108,71,-209,72v-149,1,-253,-72,-253,-210v0,-104,74,-161,165,-193v-39,-56,-61,-65,-61,-134v0,-103,93,-156,206,-156v113,0,200,58,198,165xm195,-208v-2,56,47,99,104,98v38,0,75,-13,110,-40r-136,-151v-48,21,-76,36,-78,93xm415,-513v0,-75,-131,-92,-136,-16v-2,30,42,71,64,94v48,-19,72,-45,72,-78","w":718},"'":{"d":"139,-389r-84,0r-17,-278r118,0","w":194},"(":{"d":"270,-667v-146,223,-157,597,-2,834r-107,0v-186,-260,-186,-582,3,-834r106,0","w":293},")":{"d":"23,167v146,-223,157,-596,3,-834r106,0v187,259,187,584,-3,834r-106,0","w":293},"*":{"d":"465,-326r-97,68r-77,-128r-76,128r-97,-68r97,-109r-143,-35r38,-107r136,59r-12,-149r116,0r-15,149r144,-59r35,107r-146,35"},"+":{"d":"540,-390r0,107r-194,0r0,200r-106,0r0,-200r-194,0r0,-107r194,0r0,-201r106,0r0,201r194,0"},",":{"d":"204,-151r0,137r-97,170r-54,0r75,-156r-75,0r0,-151r151,0","w":257},"-":{"d":"12,-307r233,0r0,106r-233,0r0,-106","w":257},".":{"d":"204,0r-151,0r0,-151r151,0r0,151","w":257},"\/":{"d":"34,167r-99,0r476,-834r98,0","w":535},"0":{"d":"33,-333v0,-184,83,-345,259,-344v175,1,262,157,262,348v0,177,-86,339,-262,339v-178,0,-259,-167,-259,-343xm370,-512v-28,-67,-124,-70,-153,-2v-25,59,-24,301,1,357v29,67,122,68,152,-1v27,-62,24,-296,0,-354"},"1":{"d":"61,-541v91,-25,184,-73,225,-136r113,0r0,555r185,0r0,122r-540,0r0,-122r202,0r0,-381v-79,48,-140,81,-185,99r0,-137"},"2":{"d":"291,-677v186,0,309,173,211,324v-63,98,-142,136,-278,220r319,0r-11,133r-500,0r0,-130v100,-73,209,-145,293,-231v33,-35,50,-69,50,-104v1,-53,-39,-90,-92,-89v-65,0,-103,43,-113,128r-138,-31v31,-147,117,-220,259,-220"},"3":{"d":"381,-200v-3,-67,-38,-89,-126,-86r-61,0r0,-117r71,0v61,2,100,-27,102,-78v2,-47,-41,-82,-90,-81v-63,1,-84,32,-102,85r-138,-22v25,-112,124,-176,246,-178v127,-2,236,63,237,179v0,72,-38,122,-114,149v81,18,134,72,134,158v0,132,-115,203,-258,201v-145,-2,-241,-74,-265,-203r142,-20v16,64,47,102,120,103v58,1,104,-35,102,-90"},"4":{"d":"470,-677r0,406r94,0r0,117r-94,0r0,154r-156,0r0,-154r-291,0r0,-117r269,-406r178,0xm140,-271r181,0r2,-285"},"5":{"d":"402,-215v0,-56,-49,-105,-105,-105v-43,0,-75,17,-96,52r-128,-21r26,-378r420,0r-17,137r-291,0r-10,148v38,-38,85,-57,142,-57v122,0,216,92,216,213v0,148,-108,238,-260,236v-139,-2,-236,-68,-262,-189r146,-22v15,59,53,88,112,88v59,0,107,-44,107,-102"},"6":{"d":"39,-329v0,-195,92,-348,274,-348v122,-1,209,71,232,178r-134,36v-14,-61,-36,-102,-100,-102v-97,0,-119,105,-117,222v31,-51,81,-76,149,-76v116,0,211,90,211,205v0,129,-106,226,-244,224v-181,-3,-271,-145,-271,-339xm401,-207v0,-59,-40,-105,-98,-105v-57,0,-101,48,-101,106v0,59,42,105,100,105v58,0,99,-46,99,-106"},"7":{"d":"169,0v-6,-194,113,-430,226,-529r-338,0r12,-138r466,0r0,119v-97,113,-204,315,-187,548r-179,0"},"8":{"d":"535,-501v0,78,-40,111,-101,141v76,36,124,69,124,164v0,139,-123,206,-276,206v-141,0,-253,-62,-253,-190v0,-88,46,-118,119,-148v-58,-37,-96,-70,-96,-152v0,-122,107,-197,246,-197v126,0,237,61,237,176xm292,-576v-50,0,-91,25,-91,71v0,73,52,67,131,101v45,-15,67,-43,67,-84v0,-57,-46,-88,-107,-88xm293,-97v60,0,114,-20,114,-71v0,-73,-72,-81,-154,-110v-50,17,-83,35,-83,91v0,63,54,90,123,90"},"9":{"d":"545,-343v0,191,-85,353,-276,353v-117,0,-192,-61,-218,-162r137,-25v15,47,45,70,89,70v50,0,83,-28,100,-83v6,-18,11,-61,14,-130v-42,45,-73,67,-149,69v-119,2,-206,-86,-206,-204v0,-137,104,-223,245,-222v188,1,264,144,264,334xm383,-465v0,-54,-45,-101,-99,-101v-54,0,-100,47,-100,101v0,55,43,101,97,101v56,0,102,-46,102,-101"},":":{"d":"204,-1r-151,0r0,-149r151,0r0,149xm204,-345r-151,0r0,-148r151,0r0,148","w":257},";":{"d":"204,-149r0,136r-97,171r-54,0r75,-156r-75,0r0,-151r151,0xm204,-493r0,147r-151,0r0,-147r151,0","w":257},"<":{"d":"500,-616r0,137r-287,145r287,145r0,136r-433,-224r0,-115"},"=":{"d":"540,-294r0,107r-494,0r0,-107r494,0xm540,-477r0,107r-494,0r0,-107r494,0"},">":{"d":"87,-53r0,-137r287,-145r-287,-145r0,-136r433,224r0,115"},"?":{"d":"329,0r-153,0r0,-147r153,0r0,147xm254,-679v123,-1,229,79,228,197v0,70,-37,128,-109,177v-56,38,-67,36,-68,114r-125,0v-7,-116,16,-149,87,-198v36,-25,54,-42,56,-92v1,-46,-33,-80,-79,-78v-68,3,-91,52,-97,123r-134,-19v18,-135,103,-222,241,-224","w":510},"@":{"d":"223,-319v0,-130,127,-248,238,-161r6,-22r92,0r-27,221v0,30,-13,59,17,59v57,-1,100,-90,100,-156v0,-130,-113,-228,-246,-228v-199,0,-333,227,-232,412v44,79,118,134,240,133v102,-1,126,-18,210,-56r32,80v-79,41,-160,61,-241,61v-226,-1,-365,-140,-373,-355v-7,-198,165,-356,364,-356v179,0,335,133,335,307v0,120,-86,244,-199,242v-35,0,-63,-14,-83,-42v-27,29,-57,44,-90,44v-88,0,-143,-88,-143,-183xm372,-230v86,3,121,-185,17,-185v-45,0,-68,49,-68,100v0,41,17,83,51,85","w":777},"A":{"d":"394,-667r209,667r-168,0r-41,-137r-215,0r-42,137r-137,0r213,-667r181,0xm216,-260r142,0r-71,-234","w":608},"B":{"d":"618,-183v0,120,-98,183,-240,183r-311,0r0,-667r311,0v134,-6,222,59,222,172v0,74,-40,123,-121,148v84,19,139,78,139,164xm440,-478v-4,-58,-36,-71,-110,-71r-107,0r0,146v94,-2,224,20,217,-75xm455,-205v2,-99,-132,-77,-232,-79r0,161r120,0v73,2,111,-23,112,-82","w":651},"C":{"d":"35,-334v0,-195,111,-345,301,-343v163,1,254,98,268,258r-163,11v-2,-83,-32,-142,-110,-142v-81,0,-122,75,-122,224v0,124,20,209,125,209v65,0,104,-42,119,-126r151,9v-16,153,-120,243,-271,244v-188,1,-298,-147,-298,-344","w":628},"D":{"d":"613,-335v5,190,-123,335,-317,335r-229,0r0,-667r203,0v229,-10,338,133,343,332xm452,-337v0,-108,-54,-210,-166,-207r-66,0r0,419r64,0v115,3,168,-102,168,-212","w":648},"E":{"d":"544,-540r-318,0r0,137r250,0r0,125r-250,0r0,146r318,0r0,132r-477,0r0,-667r477,0r0,127","w":570},"F":{"d":"541,-535r-312,0r0,150r247,0r0,125r-247,0r0,260r-162,0r0,-667r474,0r0,132","w":554},"G":{"d":"194,-328v0,118,34,208,136,211v65,2,109,-46,108,-115r-126,0r0,-125r274,0r0,357r-71,0v-5,-24,-13,-50,-23,-77v-52,57,-87,86,-182,87v-178,1,-275,-146,-275,-335v0,-200,102,-352,291,-352v151,0,239,92,260,229r-148,20v-8,-70,-45,-125,-115,-122v-99,4,-129,103,-129,222","w":642},"H":{"d":"582,-667r0,667r-153,0r0,-275r-209,0r0,275r-153,0r0,-667r153,0r0,260r209,0r0,-260r153,0","w":649},"I":{"d":"223,-667r0,667r-156,0r0,-667r156,0","w":289},"J":{"d":"7,-129v89,14,158,16,158,-82r0,-456r156,0r0,476v-1,142,-65,201,-209,201v-32,0,-67,-3,-105,-10r0,-129","w":381},"K":{"d":"220,-667r0,314r209,-314r149,0r-160,238r200,429r-172,0r-132,-289r-94,136r0,153r-153,0r0,-667r153,0","w":630},"L":{"d":"225,-132r265,0r0,132r-423,0r0,-667r158,0r0,535","w":503},"M":{"d":"362,0r-164,-544r0,544r-131,0r0,-667r243,0r117,399r124,-399r243,0r0,667r-157,0r0,-544r-168,544r-107,0","w":860},"N":{"d":"185,-451r3,52r0,399r-121,0r0,-667r168,0r227,393v-7,-128,-1,-261,-3,-393r121,0r0,667r-134,0","w":647},"O":{"d":"35,-336v0,-187,101,-341,287,-341v186,0,285,166,282,348v-3,190,-98,339,-287,339v-184,0,-282,-164,-282,-346xm321,-550v-101,0,-123,106,-123,216v0,145,41,217,124,217v79,0,119,-72,119,-216v0,-145,-40,-217,-120,-217","w":639},"P":{"d":"584,-462v0,137,-85,224,-248,214r-110,0r0,248r-159,0r0,-667v159,10,362,-31,450,53v43,40,67,89,67,152xm427,-458v0,-57,-39,-88,-105,-88r-102,0r0,177r102,0v64,2,105,-32,105,-89","w":603},"Q":{"d":"468,-33v2,61,55,54,118,46r0,118v-19,5,-38,7,-57,7v-106,-1,-143,-37,-153,-135v-220,36,-341,-133,-341,-336v-1,-184,100,-344,286,-344v186,0,288,152,288,349v0,136,-55,243,-141,295xm322,-550v-83,0,-124,71,-124,213v0,147,41,220,124,220v83,0,124,-71,124,-214v0,-146,-41,-219,-124,-219","w":643},"R":{"d":"603,-467v0,84,-43,143,-115,173r123,294r-173,0r-102,-264r-112,0r0,264r-157,0r0,-667r293,0v156,-6,243,64,243,200xm442,-465v0,-64,-42,-83,-126,-83r-92,0r0,170r96,0v83,3,122,-23,122,-87","w":657},"S":{"d":"35,-465v-3,-128,105,-215,243,-212v132,3,210,52,249,157r-132,44v-23,-55,-45,-78,-116,-79v-50,0,-91,16,-91,59v0,53,39,57,96,70v88,20,146,38,175,57v57,39,86,91,86,158v0,146,-112,224,-274,221v-142,-2,-242,-61,-271,-185r144,-33v19,62,64,93,135,93v56,1,107,-21,107,-70v0,-59,-48,-61,-116,-76v-138,-30,-232,-66,-235,-204","w":581},"T":{"d":"489,-667r0,132r-165,0r0,535r-158,0r0,-535r-166,0r0,-132r489,0","w":489},"U":{"d":"342,-117v91,0,117,-30,117,-134r0,-416r133,0r0,416v8,193,-87,261,-264,261v-177,0,-268,-73,-268,-261r0,-416r169,0r0,416v-1,98,25,134,113,134","w":649},"V":{"d":"562,-667r-201,667r-168,0r-200,-667r166,0r133,477r139,-477r131,0","w":555},"W":{"d":"634,-218r105,-449r128,0r-168,667r-153,0r-110,-441r-105,441r-153,0r-171,-667r159,0r103,449r109,-449r144,0","w":873},"X":{"d":"574,-667r-182,310r206,357r-180,0r-134,-242r-134,242r-148,0r206,-354r-183,-313r182,0r108,203r113,-203r146,0","w":600},"Y":{"d":"548,-667r-209,386r0,281r-156,0r0,-281r-210,-386r181,0r128,253r126,-253r140,0","w":522},"Z":{"d":"547,-552r-337,425r348,0r0,127r-538,0r0,-113r336,-428r-313,0r0,-126r504,0r0,115","w":578},"[":{"d":"263,106r0,61r-210,0r0,-834r210,0r0,63r-97,0r0,710r97,0","w":293},"\\":{"d":"502,167r-475,-834r98,0r476,834r-99,0","w":535},"]":{"d":"30,-606r0,-61r210,0r0,834r-210,0r0,-63r97,0r0,-710r-97,0","w":293},"^":{"d":"144,-335r-140,0r158,-336r176,0r157,336r-140,0r-105,-229","w":500},"_":{"d":"0,46r500,0r0,117r-500,0r0,-117","w":500},"`":{"d":"151,-740r202,119r-24,54r-215,-91","w":500},"a":{"d":"277,-503v137,0,204,40,204,188v0,102,-8,231,9,315r-141,0v-5,-31,-9,-51,-6,-77v-44,57,-71,85,-158,87v-90,1,-155,-52,-155,-138v0,-71,37,-121,110,-149v36,-13,101,-24,196,-31v5,-62,-13,-100,-73,-100v-50,0,-78,24,-84,72r-134,-13v19,-113,106,-154,232,-154xm245,-81v70,-2,100,-72,91,-155v-81,9,-150,25,-153,92v-1,37,25,64,62,63","w":541},"b":{"d":"169,-76v-11,12,-25,57,-32,76r-77,0r0,-667r145,0r0,236v30,-46,55,-72,122,-72v125,0,184,116,184,254v0,148,-63,259,-199,259v-83,0,-103,-28,-143,-86xm282,-406v-86,0,-77,117,-77,211v0,58,23,104,75,104v73,0,82,-68,82,-156v0,-90,-5,-159,-80,-159","w":545},"c":{"d":"195,-248v0,83,12,140,82,140v45,0,72,-28,81,-85r136,8v-15,122,-101,194,-226,195v-143,1,-236,-107,-236,-253v0,-151,96,-260,244,-260v121,0,206,75,218,190r-136,8v-6,-55,-23,-89,-77,-89v-57,0,-86,49,-86,146","w":512},"d":{"d":"217,-503v66,0,89,20,121,62r0,-226r141,0r0,667r-135,0r0,-77v-34,54,-60,87,-135,87v-124,0,-176,-112,-176,-251v0,-148,52,-262,184,-262xm261,-93v49,0,77,-47,77,-101r0,-92v0,-77,-24,-116,-72,-116v-55,0,-82,54,-82,163v0,97,26,146,77,146","w":539},"e":{"d":"32,-242v0,-190,178,-325,351,-233v85,45,121,121,120,253r-317,0v-9,72,28,130,94,129v49,0,78,-26,88,-77r132,9v-31,104,-104,170,-225,171v-145,1,-243,-105,-243,-252xm360,-307v-7,-63,-21,-101,-83,-101v-54,0,-84,34,-91,101r174,0","w":535},"f":{"d":"313,-575v-79,-12,-108,2,-102,82r90,0r0,113r-90,0r0,380r-141,0r0,-380r-57,0r0,-113r57,0v-16,-171,86,-216,243,-194r0,112","w":320},"g":{"d":"401,-482v6,-87,61,-104,152,-92r0,92v-48,-10,-86,-4,-95,38v25,31,39,47,39,94v1,134,-159,171,-302,146v-33,15,-35,58,-3,70v44,16,249,17,271,31v71,15,113,112,68,183v-48,74,-129,94,-264,94v-122,0,-194,-4,-239,-62v-44,-57,-11,-125,67,-142v-38,-21,-63,-39,-63,-88v0,-62,47,-88,99,-110v-58,-26,-87,-66,-87,-120v2,-150,211,-184,357,-134xm354,-351v0,-46,-36,-73,-84,-73v-47,0,-80,27,-80,73v0,47,31,75,79,75v48,0,85,-29,85,-75xm189,-1v-52,-13,-74,64,-19,76v55,12,241,33,244,-36v0,-16,-13,-25,-38,-31v-22,-6,-121,-7,-187,-9","w":553},"h":{"d":"282,-389v-56,0,-81,44,-81,111r0,278r-141,0r0,-667r141,0r0,241v27,-51,72,-77,135,-77v98,0,148,60,148,177r0,326r-145,0r0,-278v2,-69,-3,-111,-57,-111","w":544},"i":{"d":"205,-493r0,493r-145,0r0,-493r145,0xm205,-680r0,145r-145,0r0,-145r145,0","w":265},"j":{"d":"-30,56v64,12,90,-10,90,-82r0,-467r149,0r0,467v18,182,-80,223,-239,196r0,-114xm209,-680r0,147r-149,0r0,-147r149,0","w":268},"k":{"d":"385,-326r161,326r-161,0r-103,-224r-85,98r0,126r-137,0r0,-667r137,0r0,400r44,-56r144,-170r142,0","w":543},"l":{"d":"60,0r0,-667r145,0r0,667r-145,0","w":265},"m":{"d":"615,-503v106,0,149,57,149,183r0,320r-145,0r0,-273v-1,-83,1,-115,-62,-115v-61,0,-74,39,-73,115r0,273r-145,0r0,-273v-1,-81,-2,-115,-65,-115v-62,0,-73,40,-73,115r0,273r-141,0r0,-493r137,0r0,75v21,-57,68,-85,139,-85v75,0,106,30,136,85v30,-57,78,-85,143,-85","w":824},"n":{"d":"339,-503v109,0,150,63,150,187r0,316r-145,0r0,-277v0,-77,-5,-113,-62,-113v-51,0,-77,38,-77,113r0,277r-145,0r0,-493r135,0r0,83v38,-62,58,-93,144,-93","w":549},"o":{"d":"32,-250v0,-144,93,-253,233,-253v146,0,239,108,239,258v0,145,-97,255,-239,255v-142,0,-233,-114,-233,-260xm351,-242v0,-97,-6,-166,-82,-166v-73,0,-84,61,-84,149v0,99,6,174,83,174v72,0,83,-68,83,-157","w":535},"p":{"d":"506,-249v0,145,-55,259,-186,259v-54,0,-94,-21,-119,-64r0,221r-141,0r0,-660r134,0r0,72v25,-55,69,-82,130,-82v126,0,182,114,182,254xm278,-402v-79,1,-77,98,-77,186v0,85,16,113,77,124v65,-10,77,-63,77,-159v0,-101,-26,-151,-77,-151","w":539},"q":{"d":"237,-503v77,0,104,25,138,78v15,-20,27,-43,37,-68r79,0v-5,30,-7,53,-7,68r0,592r-141,0r0,-218v-36,41,-52,61,-118,61v-132,0,-191,-112,-191,-257v0,-147,66,-256,203,-256xm263,-91v49,0,80,-57,80,-112v0,-91,10,-201,-75,-201v-75,0,-81,62,-81,159v0,92,6,154,76,154","w":544},"r":{"d":"201,0r-141,0r0,-493r133,0r0,92v26,-78,60,-112,133,-101r0,144v-86,-8,-125,46,-125,157r0,201","w":347},"s":{"d":"44,-265v-73,-125,45,-245,189,-238v113,6,161,43,196,129r-106,29v-13,-45,-45,-67,-96,-67v-54,0,-98,43,-56,74v49,19,198,31,216,54v42,24,63,65,63,123v-1,114,-98,171,-222,171v-118,0,-200,-49,-223,-146r123,-17v12,44,48,66,108,66v43,1,87,-14,87,-49v0,-21,-18,-35,-55,-40v-123,-20,-182,-17,-224,-89","w":473},"t":{"d":"337,0v-155,29,-259,8,-259,-150r0,-230r-78,0r0,-113r86,0r12,-146r125,-10r0,156r106,0r0,113r-106,0r0,208v2,58,10,64,68,66v16,0,31,-1,46,-2r0,108","w":352},"u":{"d":"256,-105v56,0,80,-34,80,-111r0,-277r145,0r0,493r-135,0r0,-84v-26,63,-75,94,-147,94v-105,0,-139,-63,-139,-181r0,-322r141,0r0,322v0,44,18,66,55,66","w":541},"v":{"d":"448,-493r-169,493r-113,0r-169,-493r151,0r95,312r97,-312r108,0","w":451},"w":{"d":"712,-493r-148,493r-129,0r-78,-317r-77,317r-123,0r-152,-493r152,0r80,301r75,-301r132,0r72,303r84,-303r112,0","w":721},"x":{"d":"470,-493r-142,228r166,265r-166,0r-103,-170r-100,170r-125,0r163,-265r-141,-228r166,0r79,133r78,-133r125,0","w":494},"y":{"d":"443,-493r-154,473v-28,78,-25,86,-59,135v-37,54,-116,65,-204,52r0,-112v42,6,98,12,124,-7v11,-8,20,-24,27,-48r-180,-493r155,0r94,294r91,-294r106,0","w":445},"z":{"d":"399,-493r0,91r-220,296r229,0r0,106r-388,0r0,-106r217,-288r-199,0r0,-99r361,0","w":428},"{":{"d":"276,-607v-53,-3,-60,3,-60,64r0,177v-1,70,-14,86,-60,116v43,28,59,50,60,117r0,176v-3,60,6,67,60,64r0,58r-68,2v-153,11,-107,-179,-113,-315v-2,-50,-14,-71,-55,-80r0,-53v37,-7,55,-30,55,-71r0,-182v1,-92,27,-132,115,-133r66,2r0,58","w":293},"|":{"d":"181,-667r138,0r0,834r-138,0r0,-834","w":500},"}":{"d":"40,107v52,3,59,-5,59,-64r0,-177v1,-70,14,-86,60,-116v-43,-28,-59,-50,-60,-117r0,-176v2,-60,-5,-67,-59,-64r0,-58r67,-2v153,-11,107,179,113,315v2,51,14,71,56,80r0,53v-37,7,-56,31,-56,71r0,182v-1,92,-27,132,-115,133r-65,-2r0,-58","w":293},"~":{"d":"194,-292v-44,4,-47,23,-70,60r-74,-50v37,-85,57,-132,152,-141v33,-3,156,52,189,50v41,-2,50,-20,70,-52r76,47v-32,77,-70,128,-159,136v-18,6,-161,-52,-184,-50"},"\u00a0":{"w":250}}});
